digraph Tree {
node [shape=box, style="filled, rounded", color="black", fontname=helvetica] ;
edge [fontname=helvetica] ;
0 [label="X[3] <= 1.72\nmse = 12804.41\nsamples = 21\nvalue = 621.56", fillcolor="#f5cfb4"] ;
1 [label="X[3] <= -0.21\nmse = 4093.3\nsamples = 19\nvalue = 593.18", fillcolor="#f6d6be"] ;
0 -> 1 [labeldistance=2.5, labelangle=45, headlabel="True"] ;
2 [label="X[1] <= -0.58\nmse = 3339.56\nsamples = 7\nvalue = 535.67", fillcolor="#f9e3d2"] ;
1 -> 2 ;
3 [label="X[0] <= 0.23\nmse = 999.92\nsamples = 4\nvalue = 567.5", fillcolor="#f8dbc7"] ;
2 -> 3 ;
4 [label="mse = 0.0\nsamples = 1\nvalue = 628.0", fillcolor="#f5ceb2"] ;
3 -> 4 ;
5 [label="X[3] <= -0.89\nmse = 321.44\nsamples = 3\nvalue = 555.4", fillcolor="#f8decb"] ;
3 -> 5 ;
6 [label="mse = 0.0\nsamples = 1\nvalue = 534.0", fillcolor="#f9e3d3"] ;
5 -> 6 ;
7 [label="X[0] <= 1.08\nmse = 26.89\nsamples = 2\nvalue = 569.67", fillcolor="#f8dbc6"] ;
5 -> 7 ;
8 [label="mse = 0.0\nsamples = 1\nvalue = 577.0", fillcolor="#f7d9c4"] ;
7 -> 8 ;
9 [label="mse = 0.0\nsamples = 1\nvalue = 566.0", fillcolor="#f8dcc8"] ;
7 -> 9 ;
10 [label="X[0] <= -0.05\nmse = 1938.67\nsamples = 3\nvalue = 472.0", fillcolor="#fcf1e9"] ;
2 -> 10 ;
11 [label="X[2] <= 0.43\nmse = 25.0\nsamples = 2\nvalue = 503.0", fillcolor="#fbeade"] ;
10 -> 11 ;
12 [label="mse = 0.0\nsamples = 1\nvalue = 508.0", fillcolor="#fae9dc"] ;
11 -> 12 ;
13 [label="mse = 0.0\nsamples = 1\nvalue = 498.0", fillcolor="#fbebe0"] ;
11 -> 13 ;
14 [label="mse = 0.0\nsamples = 1\nvalue = 410.0", fillcolor="#ffffff"] ;
10 -> 14 ;
15 [label="X[1] <= 0.79\nmse = 2670.27\nsamples = 12\nvalue = 614.75", fillcolor="#f5d1b6"] ;
1 -> 15 ;
16 [label="X[3] <= -0.08\nmse = 1003.57\nsamples = 9\nvalue = 636.89", fillcolor="#f4ccae"] ;
15 -> 16 ;
17 [label="mse = 0.0\nsamples = 1\nvalue = 699.0", fillcolor="#f2be98"] ;
16 -> 17 ;
18 [label="X[3] <= 0.24\nmse = 614.48\nsamples = 8\nvalue = 629.59", fillcolor="#f5cdb1"] ;
16 -> 18 ;
19 [label="X[1] <= -0.6\nmse = 521.47\nsamples = 3\nvalue = 602.17", fillcolor="#f6d4bb"] ;
18 -> 19 ;
20 [label="mse = 0.0\nsamples = 1\nvalue = 561.0", fillcolor="#f8ddc9"] ;
19 -> 20 ;
21 [label="X[2] <= 1.91\nmse = 219.04\nsamples = 2\nvalue = 610.4", fillcolor="#f6d2b8"] ;
19 -> 21 ;
22 [label="mse = 0.0\nsamples = 1\nvalue = 603.0", fillcolor="#f6d3bb"] ;
21 -> 22 ;
23 [label="mse = 0.0\nsamples = 1\nvalue = 640.0", fillcolor="#f4cbad"] ;
21 -> 23 ;
24 [label="X[3] <= 0.82\nmse = 31.34\nsamples = 5\nvalue = 644.55", fillcolor="#f4caac"] ;
18 -> 24 ;
25 [label="X[3] <= 0.44\nmse = 2.25\nsamples = 2\nvalue = 633.5", fillcolor="#f5cdb0"] ;
24 -> 25 ;
26 [label="mse = 0.0\nsamples = 1\nvalue = 635.0", fillcolor="#f5ccaf"] ;
25 -> 26 ;
27 [label="mse = 0.0\nsamples = 1\nvalue = 632.0", fillcolor="#f5cdb0"] ;
25 -> 27 ;
28 [label="X[0] <= -0.85\nmse = 4.67\nsamples = 3\nvalue = 647.0", fillcolor="#f4c9ab"] ;
24 -> 28 ;
29 [label="mse = 0.0\nsamples = 1\nvalue = 644.0", fillcolor="#f4caac"] ;
28 -> 29 ;
30 [label="X[0] <= 0.23\nmse = 0.25\nsamples = 2\nvalue = 648.5", fillcolor="#f4c9aa"] ;
28 -> 30 ;
31 [label="mse = 0.0\nsamples = 1\nvalue = 649.0", fillcolor="#f4c9aa"] ;
30 -> 31 ;
32 [label="mse = 0.0\nsamples = 1\nvalue = 648.0", fillcolor="#f4c9ab"] ;
30 -> 32 ;
33 [label="X[0] <= -0.05\nmse = 59.04\nsamples = 3\nvalue = 530.6", fillcolor="#f9e4d4"] ;
15 -> 33 ;
34 [label="X[2] <= 0.65\nmse = 0.22\nsamples = 2\nvalue = 524.33", fillcolor="#fae5d6"] ;
33 -> 34 ;
35 [label="mse = 0.0\nsamples = 1\nvalue = 525.0", fillcolor="#fae5d6"] ;
34 -> 35 ;
36 [label="mse = 0.0\nsamples = 1\nvalue = 524.0", fillcolor="#fae5d7"] ;
34 -> 36 ;
37 [label="mse = 0.0\nsamples = 1\nvalue = 540.0", fillcolor="#f9e2d1"] ;
33 -> 37 ;
38 [label="X[3] <= 2.26\nmse = 2357.56\nsamples = 2\nvalue = 933.67", fillcolor="#e78945"] ;
0 -> 38 [labeldistance=2.5, labelangle=-45, headlabel="False"] ;
39 [label="mse = 0.0\nsamples = 1\nvalue = 968.0", fillcolor="#e58139"] ;
38 -> 39 ;
40 [label="mse = 0.0\nsamples = 1\nvalue = 865.0", fillcolor="#ea985e"] ;
38 -> 40 ;
}